<?xml version="1.0"?>
<opencv_storage>
<cascade>
  <stageType>BOOST</stageType>
  <featureType>HAAR</featureType>
  <height>32</height>
  <width>32</width>
  <stageParams>
    <boostType>GAB</boostType>
    <minHitRate>9.9900001287460327e-01</minHitRate>
    <maxFalseAlarm>5.0000000000000000e-01</maxFalseAlarm>
    <weightTrimRate>9.4999999999999996e-01</weightTrimRate>
    <maxDepth>1</maxDepth>
    <maxWeakCount>100</maxWeakCount></stageParams>
  <featureParams>
    <maxCatCount>0</maxCatCount>
    <featSize>1</featSize>
    <mode>ALL</mode></featureParams>
  <stageNum>11</stageNum>
  <stages>
    <!-- stage 0 -->
    <_>
      <maxWeakCount>3</maxWeakCount>
      <stageThreshold>-2.0077228546142578e+00</stageThreshold>
      <weakClassifiers>
        <_>
          <internalNodes>
            0 -1 17 4.8813156783580780e-02</internalNodes>
          <leafValues>
            -9.7209441661834717e-01 7.0873785018920898e-01</leafValues></_>
        <_>
          <internalNodes>
            0 -1 15 2.1853996440768242e-02</internalNodes>
          <leafValues>
            -9.8356932401657104e-01 -7.8152626752853394e-02</leafValues></_>
        <_>
          <internalNodes>
            0 -1 39 2.4522454477846622e-03</internalNodes>
          <leafValues>
            -9.5747578144073486e-01 2.3557549715042114e-01</leafValues></_></weakClassifiers></_>
    <!-- stage 1 -->
    <_>
      <maxWeakCount>4</maxWeakCount>
      <stageThreshold>-2.6300585269927979e+00</stageThreshold>
      <weakClassifiers>
        <_>
          <internalNodes>
            0 -1 35 -2.8115528821945190e-01</internalNodes>
          <leafValues>
            6.9565218687057495e-01 -9.7063404321670532e-01</leafValues></_>
        <_>
          <internalNodes>
            0 -1 22 -3.9074480533599854e-02</internalNodes>
          <leafValues>
            2.2032614052295685e-01 -9.1367548704147339e-01</leafValues></_>
        <_>
          <internalNodes>
            0 -1 34 1.3403914868831635e-02</internalNodes>
          <leafValues>
            -9.5320147275924683e-01 1.8724431097507477e-01</leafValues></_>
        <_>
          <internalNodes>
            0 -1 23 -5.5318237282335758e-03</internalNodes>
          <leafValues>
            3.4826657176017761e-01 -9.3299335241317749e-01</leafValues></_></weakClassifiers></_>
    <!-- stage 2 -->
    <_>
      <maxWeakCount>3</maxWeakCount>
      <stageThreshold>-1.8798846006393433e+00</stageThreshold>
      <weakClassifiers>
        <_>
          <internalNodes>
            0 -1 18 4.1860565543174744e-02</internalNodes>
          <leafValues>
            -9.7122514247894287e-01 7.6344084739685059e-01</leafValues></_>
        <_>
          <internalNodes>
            0 -1 22 -3.9102185517549515e-02</internalNodes>
          <leafValues>
            1.4871361851692200e-01 -9.1470754146575928e-01</leafValues></_>
        <_>
          <internalNodes>
            0 -1 5 1.5010001137852669e-02</internalNodes>
          <leafValues>
            -1. 6.0481177642941475e-03</leafValues></_></weakClassifiers></_>
    <!-- stage 3 -->
    <_>
      <maxWeakCount>4</maxWeakCount>
      <stageThreshold>-2.7021765708923340e+00</stageThreshold>
      <weakClassifiers>
        <_>
          <internalNodes>
            0 -1 31 -4.3047435581684113e-02</internalNodes>
          <leafValues>
            8.6138612031936646e-01 -9.7298902273178101e-01</leafValues></_>
        <_>
          <internalNodes>
            0 -1 19 5.5985718965530396e-02</internalNodes>
          <leafValues>
            -9.0908533334732056e-01 1.6263796016573906e-02</leafValues></_>
        <_>
          <internalNodes>
            0 -1 37 -7.4369773268699646e-02</internalNodes>
          <leafValues>
            1.5299096703529358e-01 -9.2246484756469727e-01</leafValues></_>
        <_>
          <internalNodes>
            0 -1 8 -1.6085354145616293e-03</internalNodes>
          <leafValues>
            2.5303831696510315e-01 -9.7309315204620361e-01</leafValues></_></weakClassifiers></_>
    <!-- stage 4 -->
    <_>
      <maxWeakCount>4</maxWeakCount>
      <stageThreshold>-2.6717369556427002e+00</stageThreshold>
      <weakClassifiers>
        <_>
          <internalNodes>
            0 -1 30 -4.9652989953756332e-02</internalNodes>
          <leafValues>
            7.9439252614974976e-01 -9.7327393293380737e-01</leafValues></_>
        <_>
          <internalNodes>
            0 -1 19 5.5995695292949677e-02</internalNodes>
          <leafValues>
            -9.1086900234222412e-01 3.5457435995340347e-02</leafValues></_>
        <_>
          <internalNodes>
            0 -1 25 5.7670734822750092e-03</internalNodes>
          <leafValues>
            -9.7360086441040039e-01 -1.0368491522967815e-02</leafValues></_>
        <_>
          <internalNodes>
            0 -1 1 -7.7042719349265099e-03</internalNodes>
          <leafValues>
            1.8600682914257050e-01 -1.</leafValues></_></weakClassifiers></_>
    <!-- stage 5 -->
    <_>
      <maxWeakCount>5</maxWeakCount>
      <stageThreshold>-3.0523221492767334e+00</stageThreshold>
      <weakClassifiers>
        <_>
          <internalNodes>
            0 -1 16 1.2080074101686478e-01</internalNodes>
          <leafValues>
            -9.7533249855041504e-01 8.6440676450729370e-01</leafValues></_>
        <_>
          <internalNodes>
            0 -1 3 2.2310800850391388e-02</internalNodes>
          <leafValues>
            -8.6641395092010498e-01 9.8228126764297485e-01</leafValues></_>
        <_>
          <internalNodes>
            0 -1 11 1.8494439125061035e-01</internalNodes>
          <leafValues>
            -7.5812864303588867e-01 4.3905121088027954e-01</leafValues></_>
        <_>
          <internalNodes>
            0 -1 14 -3.4891705581685528e-05</internalNodes>
          <leafValues>
            -8.8043403625488281e-01 4.0217790007591248e-01</leafValues></_>
        <_>
          <internalNodes>
            0 -1 27 2.5396402925252914e-03</internalNodes>
          <leafValues>
            -9.8581027984619141e-01 4.2798683047294617e-01</leafValues></_></weakClassifiers></_>
    <!-- stage 6 -->
    <_>
      <maxWeakCount>4</maxWeakCount>
      <stageThreshold>-2.4831039905548096e+00</stageThreshold>
      <weakClassifiers>
        <_>
          <internalNodes>
            0 -1 2 1.0283645987510681e-01</internalNodes>
          <leafValues>
            -9.7975438833236694e-01 9.7183096408843994e-01</leafValues></_>
        <_>
          <internalNodes>
            0 -1 20 4.9346841871738434e-02</internalNodes>
          <leafValues>
            -9.1386252641677856e-01 4.8830357193946838e-01</leafValues></_>
        <_>
          <internalNodes>
            0 -1 33 -8.0861151218414307e-04</internalNodes>
          <leafValues>
            1.6684912145137787e-01 -9.5603698492050171e-01</leafValues></_>
        <_>
          <internalNodes>
            0 -1 13 -1.2875700485892594e-04</internalNodes>
          <leafValues>
            -9.7761607170104980e-01 3.6654984951019287e-01</leafValues></_></weakClassifiers></_>
    <!-- stage 7 -->
    <_>
      <maxWeakCount>5</maxWeakCount>
      <stageThreshold>-3.0561242103576660e+00</stageThreshold>
      <weakClassifiers>
        <_>
          <internalNodes>
            0 -1 4 -4.6520449221134186e-02</internalNodes>
          <leafValues>
            8.1632655858993530e-01 -9.8535233736038208e-01</leafValues></_>
        <_>
          <internalNodes>
            0 -1 36 8.9022936299443245e-04</internalNodes>
          <leafValues>
            -9.6305942535400391e-01 2.0519198477268219e-01</leafValues></_>
        <_>
          <internalNodes>
            0 -1 29 1.3768915086984634e-03</internalNodes>
          <leafValues>
            -8.4350401163101196e-01 5.7406437397003174e-01</leafValues></_>
        <_>
          <internalNodes>
            0 -1 24 -1.1747186072170734e-03</internalNodes>
          <leafValues>
            4.8897805809974670e-01 -8.4646672010421753e-01</leafValues></_>
        <_>
          <internalNodes>
            0 -1 10 7.3331162333488464e-02</internalNodes>
          <leafValues>
            -7.5318640470504761e-01 6.4653968811035156e-01</leafValues></_></weakClassifiers></_>
    <!-- stage 8 -->
    <_>
      <maxWeakCount>4</maxWeakCount>
      <stageThreshold>-2.3730394840240479e+00</stageThreshold>
      <weakClassifiers>
        <_>
          <internalNodes>
            0 -1 12 -6.0851581394672394e-02</internalNodes>
          <leafValues>
            1. -9.8241299390792847e-01</leafValues></_>
        <_>
          <internalNodes>
            0 -1 6 2.6983130373992026e-04</internalNodes>
          <leafValues>
            -9.5299023389816284e-01 3.3831217885017395e-01</leafValues></_>
        <_>
          <internalNodes>
            0 -1 38 -2.9780680779367685e-04</internalNodes>
          <leafValues>
            5.1979964971542358e-01 -9.3161058425903320e-01</leafValues></_>
        <_>
          <internalNodes>
            0 -1 28 1.3225108850747347e-03</internalNodes>
          <leafValues>
            -9.4355124235153198e-01 4.9397426843643188e-01</leafValues></_></weakClassifiers></_>
    <!-- stage 9 -->
    <_>
      <maxWeakCount>5</maxWeakCount>
      <stageThreshold>-2.9671821594238281e+00</stageThreshold>
      <weakClassifiers>
        <_>
          <internalNodes>
            0 -1 9 -5.9556700289249420e-02</internalNodes>
          <leafValues>
            1. -9.8241299390792847e-01</leafValues></_>
        <_>
          <internalNodes>
            0 -1 0 3.0961102247238159e-01</internalNodes>
          <leafValues>
            -9.4101130962371826e-01 4.7851169109344482e-01</leafValues></_>
        <_>
          <internalNodes>
            0 -1 32 9.3111372552812099e-04</internalNodes>
          <leafValues>
            -8.7362051010131836e-01 4.9463221430778503e-01</leafValues></_>
        <_>
          <internalNodes>
            0 -1 21 5.3943728562444448e-04</internalNodes>
          <leafValues>
            -8.3033466339111328e-01 5.5905801057815552e-01</leafValues></_>
        <_>
          <internalNodes>
            0 -1 7 2.7796532958745956e-02</internalNodes>
          <leafValues>
            -7.2919523715972900e-01 6.9197255373001099e-01</leafValues></_></weakClassifiers></_>
    <!-- stage 10 -->
    <_>
      <maxWeakCount>4</maxWeakCount>
      <stageThreshold>-2.3645832538604736e+00</stageThreshold>
      <weakClassifiers>
        <_>
          <internalNodes>
            0 -1 16 6.6366665065288544e-02</internalNodes>
          <leafValues>
            -9.8626148700714111e-01 1.</leafValues></_>
        <_>
          <internalNodes>
            0 -1 41 1.3772096717730165e-03</internalNodes>
          <leafValues>
            -9.5354342460632324e-01 1.</leafValues></_>
        <_>
          <internalNodes>
            0 -1 40 -3.7554465234279633e-04</internalNodes>
          <leafValues>
            7.0638537406921387e-01 -9.2842108011245728e-01</leafValues></_>
        <_>
          <internalNodes>
            0 -1 26 7.6513271778821945e-04</internalNodes>
          <leafValues>
            5.0364261865615845e-01 -9.3936413526535034e-01</leafValues></_></weakClassifiers></_></stages>
  <features>
    <_>
      <rects>
        <_>
          0 0 32 11 -1.</_>
        <_>
          16 0 16 11 2.</_></rects>
      <tilted>0</tilted></_>
    <_>
      <rects>
        <_>
          0 2 27 4 -1.</_>
        <_>
          0 4 27 2 2.</_></rects>
      <tilted>0</tilted></_>
    <_>
      <rects>
        <_>
          0 14 27 9 -1.</_>
        <_>
          0 17 27 3 3.</_></rects>
      <tilted>0</tilted></_>
    <_>
      <rects>
        <_>
          0 15 28 4 -1.</_>
        <_>
          0 16 28 2 2.</_></rects>
      <tilted>0</tilted></_>
    <_>
      <rects>
        <_>
          0 18 26 8 -1.</_>
        <_>
          0 20 26 4 2.</_></rects>
      <tilted>0</tilted></_>
    <_>
      <rects>
        <_>
          0 24 18 5 -1.</_>
        <_>
          9 24 9 5 2.</_></rects>
      <tilted>0</tilted></_>
    <_>
      <rects>
        <_>
          0 29 1 3 -1.</_>
        <_>
          0 30 1 1 3.</_></rects>
      <tilted>0</tilted></_>
    <_>
      <rects>
        <_>
          1 0 16 6 -1.</_>
        <_>
          9 0 8 6 2.</_></rects>
      <tilted>0</tilted></_>
    <_>
      <rects>
        <_>
          1 7 21 2 -1.</_>
        <_>
          1 8 21 1 2.</_></rects>
      <tilted>0</tilted></_>
    <_>
      <rects>
        <_>
          1 18 30 8 -1.</_>
        <_>
          1 20 30 4 2.</_></rects>
      <tilted>0</tilted></_>
    <_>
      <rects>
        <_>
          2 0 30 3 -1.</_>
        <_>
          17 0 15 3 2.</_></rects>
      <tilted>0</tilted></_>
    <_>
      <rects>
        <_>
          2 6 24 17 -1.</_>
        <_>
          14 6 12 17 2.</_></rects>
      <tilted>0</tilted></_>
    <_>
      <rects>
        <_>
          2 18 30 8 -1.</_>
        <_>
          2 20 30 4 2.</_></rects>
      <tilted>0</tilted></_>
    <_>
      <rects>
        <_>
          4 4 13 4 -1.</_>
        <_>
          4 5 13 2 2.</_></rects>
      <tilted>0</tilted></_>
    <_>
      <rects>
        <_>
          4 4 15 4 -1.</_>
        <_>
          4 5 15 2 2.</_></rects>
      <tilted>0</tilted></_>
    <_>
      <rects>
        <_>
          5 0 20 2 -1.</_>
        <_>
          15 0 10 2 2.</_></rects>
      <tilted>0</tilted></_>
    <_>
      <rects>
        <_>
          5 14 23 9 -1.</_>
        <_>
          5 17 23 3 3.</_></rects>
      <tilted>0</tilted></_>
    <_>
      <rects>
        <_>
          5 21 24 2 -1.</_>
        <_>
          11 21 12 2 2.</_></rects>
      <tilted>0</tilted></_>
    <_>
      <rects>
        <_>
          6 21 20 2 -1.</_>
        <_>
          11 21 10 2 2.</_></rects>
      <tilted>0</tilted></_>
    <_>
      <rects>
        <_>
          8 14 16 9 -1.</_>
        <_>
          8 17 16 3 3.</_></rects>
      <tilted>0</tilted></_>
    <_>
      <rects>
        <_>
          9 9 12 7 -1.</_>
        <_>
          13 13 4 7 3.</_></rects>
      <tilted>1</tilted></_>
    <_>
      <rects>
        <_>
          11 1 4 2 -1.</_>
        <_>
          13 1 2 2 2.</_></rects>
      <tilted>0</tilted></_>
    <_>
      <rects>
        <_>
          11 18 18 8 -1.</_>
        <_>
          11 20 18 4 2.</_></rects>
      <tilted>0</tilted></_>
    <_>
      <rects>
        <_>
          13 25 19 4 -1.</_>
        <_>
          13 27 19 2 2.</_></rects>
      <tilted>0</tilted></_>
    <_>
      <rects>
        <_>
          16 0 9 6 -1.</_>
        <_>
          19 2 3 2 9.</_></rects>
      <tilted>0</tilted></_>
    <_>
      <rects>
        <_>
          16 0 6 7 -1.</_>
        <_>
          19 0 3 7 2.</_></rects>
      <tilted>0</tilted></_>
    <_>
      <rects>
        <_>
          17 0 6 6 -1.</_>
        <_>
          19 2 2 2 9.</_></rects>
      <tilted>0</tilted></_>
    <_>
      <rects>
        <_>
          17 0 4 7 -1.</_>
        <_>
          19 0 2 7 2.</_></rects>
      <tilted>0</tilted></_>
    <_>
      <rects>
        <_>
          17 0 4 2 -1.</_>
        <_>
          17 0 4 1 2.</_></rects>
      <tilted>1</tilted></_>
    <_>
      <rects>
        <_>
          17 23 14 4 -1.</_>
        <_>
          17 24 14 2 2.</_></rects>
      <tilted>0</tilted></_>
    <_>
      <rects>
        <_>
          18 13 10 10 -1.</_>
        <_>
          18 13 5 5 2.</_>
        <_>
          23 18 5 5 2.</_></rects>
      <tilted>0</tilted></_>
    <_>
      <rects>
        <_>
          18 15 10 8 -1.</_>
        <_>
          18 15 5 4 2.</_>
        <_>
          23 19 5 4 2.</_></rects>
      <tilted>0</tilted></_>
    <_>
      <rects>
        <_>
          19 5 7 4 -1.</_>
        <_>
          19 6 7 2 2.</_></rects>
      <tilted>0</tilted></_>
    <_>
      <rects>
        <_>
          20 0 3 6 -1.</_>
        <_>
          21 2 1 2 9.</_></rects>
      <tilted>0</tilted></_>
    <_>
      <rects>
        <_>
          20 2 4 6 -1.</_>
        <_>
          20 2 4 3 2.</_></rects>
      <tilted>1</tilted></_>
    <_>
      <rects>
        <_>
          20 16 12 12 -1.</_>
        <_>
          24 20 4 4 9.</_></rects>
      <tilted>0</tilted></_>
    <_>
      <rects>
        <_>
          23 0 1 2 -1.</_>
        <_>
          23 0 1 1 2.</_></rects>
      <tilted>1</tilted></_>
    <_>
      <rects>
        <_>
          23 0 9 22 -1.</_>
        <_>
          23 11 9 11 2.</_></rects>
      <tilted>0</tilted></_>
    <_>
      <rects>
        <_>
          23 1 1 6 -1.</_>
        <_>
          23 3 1 2 3.</_></rects>
      <tilted>0</tilted></_>
    <_>
      <rects>
        <_>
          24 0 1 4 -1.</_>
        <_>
          24 0 1 2 2.</_></rects>
      <tilted>1</tilted></_>
    <_>
      <rects>
        <_>
          24 4 7 3 -1.</_>
        <_>
          24 5 7 1 3.</_></rects>
      <tilted>0</tilted></_>
    <_>
      <rects>
        <_>
          26 31 6 1 -1.</_>
        <_>
          29 31 3 1 2.</_></rects>
      <tilted>0</tilted></_></features></cascade>
</opencv_storage>
